<?xml version="1.0" encoding="UTF-8"?>
<BIF VERSION="0.3"  xmlns="http://www.cs.ubc.ca/labs/lci/fopi/ve/XMLBIFv0_3"
	xmlns:xsi="http://www.w3.org/2001/XMLSchema-instance"
	xsi:schemaLocation="http://www.cs.ubc.ca/labs/lci/fopi/ve/XMLBIFv0_3 http://www.cs.ubc.ca/labs/lci/fopi/ve/XMLBIFv0_3/XMLBIFv0_3.xsd">
<NETWORK>
<NAME>Untitled</NAME>
<PROPERTY>detailed = </PROPERTY>
<PROPERTY>short = </PROPERTY>

<VARIABLE TYPE="nature">
	<NAME>P</NAME>
	<OUTCOME>T</OUTCOME>
	<OUTCOME>F</OUTCOME>
	<PROPERTY>position = (7400.966796875, 5047.53125)</PROPERTY>
</VARIABLE>

<VARIABLE TYPE="nature">
	<NAME>Q</NAME>
	<OUTCOME>T</OUTCOME>
	<OUTCOME>F</OUTCOME>
	<PROPERTY>position = (7398.328125, 5143.84130859375)</PROPERTY>
</VARIABLE>

<VARIABLE TYPE="nature">
	<NAME>R</NAME>
	<OUTCOME>T</OUTCOME>
	<OUTCOME>F</OUTCOME>
	<PROPERTY>position = (7556.646484375, 5134.6064453125)</PROPERTY>
</VARIABLE>

<VARIABLE TYPE="nature">
	<NAME>V</NAME>
	<OUTCOME>T</OUTCOME>
	<OUTCOME>F</OUTCOME>
	<PROPERTY>position = (7311.25390625, 5240.1513671875)</PROPERTY>
</VARIABLE>

<VARIABLE TYPE="nature">
	<NAME>S</NAME>
	<OUTCOME>T</OUTCOME>
	<OUTCOME>F</OUTCOME>
	<PROPERTY>position = (7577.75537109375, 5233.55517578125)</PROPERTY>
</VARIABLE>

<VARIABLE TYPE="nature">
	<NAME>Z</NAME>
	<OUTCOME>T</OUTCOME>
	<OUTCOME>F</OUTCOME>
	<PROPERTY>position = (7403.60595703125, 5398.46923828125)</PROPERTY>
</VARIABLE>

<VARIABLE TYPE="nature">
	<NAME>U</NAME>
	<OUTCOME>T</OUTCOME>
	<OUTCOME>F</OUTCOME>
	<PROPERTY>position = (7672.74609375, 5377.35986328125)</PROPERTY>
</VARIABLE>

<DEFINITION>
	<FOR>P</FOR>
	<TABLE>0.05 0.95</TABLE>
</DEFINITION>

<DEFINITION>
	<FOR>Q</FOR>
	<GIVEN>P</GIVEN>
	<TABLE>0.9 0.1 0.7 0.3</TABLE>
</DEFINITION>

<DEFINITION>
	<FOR>R</FOR>
	<TABLE>0.7 0.3</TABLE>
</DEFINITION>

<DEFINITION>
	<FOR>V</FOR>
	<GIVEN>Q</GIVEN>
	<GIVEN>R</GIVEN>
	<TABLE>0.7 0.3 0.55 0.45 0.15 0.85 0.1 0.9</TABLE>
</DEFINITION>

<DEFINITION>
	<FOR>S</FOR>
	<GIVEN>Q</GIVEN>
	<GIVEN>R</GIVEN>
	<TABLE>0.6 0.4 0.7 0.3 0.2 0.8 0.1 0.9</TABLE>
</DEFINITION>

<DEFINITION>
	<FOR>Z</FOR>
	<GIVEN>V</GIVEN>
	<GIVEN>S</GIVEN>
	<TABLE>0.65 0.35 0.7 0.3 0.4 0.6 0.2 0.8</TABLE>
</DEFINITION>

<DEFINITION>
	<FOR>U</FOR>
	<GIVEN>S</GIVEN>
	<TABLE>0.05 0.95 0.8 0.2</TABLE>
</DEFINITION>
</NETWORK>
</BIF>
