<?xml version="1.0" encoding="UTF-8"?>
<BIF VERSION="0.3"  xmlns="http://www.cs.ubc.ca/labs/lci/fopi/ve/XMLBIFv0_3"
	xmlns:xsi="http://www.w3.org/2001/XMLSchema-instance"
	xsi:schemaLocation="http://www.cs.ubc.ca/labs/lci/fopi/ve/XMLBIFv0_3 http://www.cs.ubc.ca/labs/lci/fopi/ve/XMLBIFv0_3/XMLBIFv0_3.xsd">
<NETWORK>
<NAME>Untitled</NAME>
<PROPERTY>detailed = </PROPERTY>
<PROPERTY>short = </PROPERTY>

<VARIABLE TYPE="nature">
	<NAME>J</NAME>
	<OUTCOME>T</OUTCOME>
	<OUTCOME>F</OUTCOME>
	<PROPERTY>position = (7340.6201171875, 5047.85888671875)</PROPERTY>
</VARIABLE>

<VARIABLE TYPE="nature">
	<NAME>K</NAME>
	<OUTCOME>T</OUTCOME>
	<OUTCOME>F</OUTCOME>
	<PROPERTY>position = (7383.07861328125, 5161.58642578125)</PROPERTY>
</VARIABLE>

<VARIABLE TYPE="nature">
	<NAME>L</NAME>
	<OUTCOME>T</OUTCOME>
	<OUTCOME>F</OUTCOME>
	<OBS>T</OBS>
	<PROPERTY>position = (7642.37939453125, 5155.52099609375)</PROPERTY>
</VARIABLE>

<VARIABLE TYPE="nature">
	<NAME>M</NAME>
	<OUTCOME>T</OUTCOME>
	<OUTCOME>F</OUTCOME>
	<PROPERTY>position = (7515.0029296875, 5255.6015625)</PROPERTY>
</VARIABLE>

<VARIABLE TYPE="nature">
	<NAME>O</NAME>
	<OUTCOME>T</OUTCOME>
	<OUTCOME>F</OUTCOME>
	<PROPERTY>position = (7618.1171875, 5398.14111328125)</PROPERTY>
</VARIABLE>

<VARIABLE TYPE="nature">
	<NAME>N</NAME>
	<OUTCOME>T</OUTCOME>
	<OUTCOME>F</OUTCOME>
	<PROPERTY>position = (7389.14404296875, 5390.55908203125)</PROPERTY>
</VARIABLE>

<DEFINITION>
	<FOR>J</FOR>
	<TABLE>0.05 0.95</TABLE>
</DEFINITION>

<DEFINITION>
	<FOR>K</FOR>
	<GIVEN>J</GIVEN>
	<TABLE>0.9 0.1 0.7 0.3</TABLE>
</DEFINITION>

<DEFINITION>
	<FOR>L</FOR>
	<TABLE>0.7 0.3</TABLE>
</DEFINITION>

<DEFINITION>
	<FOR>M</FOR>
	<GIVEN>K</GIVEN>
	<GIVEN>L</GIVEN>
	<TABLE>0.6 0.4 0.7 0.3 0.2 0.8 0.1 0.9</TABLE>
</DEFINITION>

<DEFINITION>
	<FOR>O</FOR>
	<GIVEN>M</GIVEN>
	<TABLE>0.05 0.95 0.8 0.2</TABLE>
</DEFINITION>

<DEFINITION>
	<FOR>N</FOR>
	<GIVEN>M</GIVEN>
	<TABLE>0.6 0.4 0.2 0.8</TABLE>
</DEFINITION>
</NETWORK>
</BIF>
